{
  "BTC-USD": {
    "weight_stats": {
      "fc1.weight": {
        "shape": [
          256,
          72
        ],
        "mean": -0.0004946204135194421,
        "std": 0.06911615282297134,
        "min": -0.16222123801708221,
        "max": 0.16222262382507324,
        "has_nan": false,
        "has_inf": false
      },
      "fc1.bias": {
        "shape": [
          256
        ],
        "mean": 0.004351336043328047,
        "std": 0.0727197676897049,
        "min": -0.12448635697364807,
        "max": 0.13159091770648956,
        "has_nan": false,
        "has_inf": false
      },
      "fc2.weight": {
        "shape": [
          128,
          256
        ],
        "mean": 0.0013907974353060126,
        "std": 0.037402279675006866,
        "min": -0.09239546954631805,
        "max": 0.09384632110595703,
        "has_nan": false,
        "has_inf": false
      },
      "fc2.bias": {
        "shape": [
          128
        ],
        "mean": 0.0008930079056881368,
        "std": 0.03670499101281166,
        "min": -0.06991235911846161,
        "max": 0.07568144798278809,
        "has_nan": false,
        "has_inf": false
      },
      "fc3.weight": {
        "shape": [
          64,
          128
        ],
        "mean": 0.0006055911653675139,
        "std": 0.05150085687637329,
        "min": -0.12160889059305191,
        "max": 0.11522292345762253,
        "has_nan": false,
        "has_inf": false
      },
      "fc3.bias": {
        "shape": [
          64
        ],
        "mean": 0.015927890315651894,
        "std": 0.04794194921851158,
        "min": -0.08903879672288895,
        "max": 0.1070062518119812,
        "has_nan": false,
        "has_inf": false
      },
      "fc4.weight": {
        "shape": [
          3,
          64
        ],
        "mean": 0.0009326824801973999,
        "std": 0.07137519121170044,
        "min": -0.13936640322208405,
        "max": 0.13278920948505402,
        "has_nan": false,
        "has_inf": false
      },
      "fc4.bias": {
        "shape": [
          3
        ],
        "mean": -0.0018217911710962653,
        "std": 0.062416862696409225,
        "min": -0.04874451830983162,
        "max": 0.06901633739471436,
        "has_nan": false,
        "has_inf": false
      }
    },
    "prediction_stats": {
      "logits": "[[ 4.2278277e+04 -2.3225951e+04 -1.1975800e+04]\n [ 2.8192062e+04 -1.5479053e+04 -7.9930806e+03]\n [ 4.5110227e+04 -2.4868135e+04 -1.2717992e+04]\n [ 3.5100742e+04 -1.9337461e+04 -9.9046992e+03]\n [ 2.6198439e+04 -1.4430241e+04 -7.3943286e+03]\n [ 3.8571297e+04 -2.1250148e+04 -1.0881730e+04]\n [ 4.2059859e+04 -2.3180396e+04 -1.1868246e+04]\n [ 2.9409623e+04 -1.6154204e+04 -8.3264844e+03]\n [ 2.9762893e+04 -1.6400596e+04 -8.3945127e+03]\n [ 2.8970123e+04 -1.6003811e+04 -8.1476460e+03]\n [ 4.4385418e+04 -2.4486996e+04 -1.2502818e+04]\n [ 2.8692719e+04 -1.5804865e+04 -8.0974009e+03]\n [ 2.7728223e+04 -1.5289336e+04 -7.8194282e+03]\n [ 2.8794061e+04 -1.5827886e+04 -8.1448931e+03]\n [ 4.5674414e+04 -2.5136510e+04 -1.2901846e+04]\n [ 3.6905090e+04 -2.0265297e+04 -1.0454879e+04]\n [ 3.0426066e+04 -1.6678883e+04 -8.6414590e+03]\n [ 3.4085594e+04 -1.8695225e+04 -9.6753809e+03]\n [ 1.8544080e+04 -1.0204509e+04 -5.2382603e+03]\n [ 4.0770062e+04 -2.2352375e+04 -1.1572568e+04]\n [ 4.2425770e+04 -2.3416434e+04 -1.1943968e+04]\n [ 4.6373719e+04 -2.5465129e+04 -1.3143085e+04]\n [ 4.2675887e+04 -2.3490836e+04 -1.2051862e+04]\n [ 4.1797117e+04 -2.2993908e+04 -1.1816859e+04]\n [ 2.9703768e+04 -1.6328192e+04 -8.4113721e+03]\n [ 2.6666885e+04 -1.4635713e+04 -7.5588457e+03]\n [ 4.8733348e+04 -2.6758740e+04 -1.3806508e+04]\n [ 2.9677684e+04 -1.6322588e+04 -8.3889766e+03]\n [ 4.8588723e+04 -2.6736455e+04 -1.3726444e+04]\n [ 2.0742682e+04 -1.1392920e+04 -5.8736353e+03]\n [ 2.6525258e+04 -1.4562706e+04 -7.5133516e+03]\n [ 3.6548891e+04 -2.0133979e+04 -1.0314086e+04]\n [ 2.9967939e+04 -1.6452619e+04 -8.4965107e+03]\n [ 4.4877777e+04 -2.4671213e+04 -1.2693835e+04]\n [ 3.5975633e+04 -1.9789869e+04 -1.0165733e+04]\n [ 2.8148271e+04 -1.5474271e+04 -7.9630791e+03]\n [ 4.1657535e+04 -2.2875689e+04 -1.1798721e+04]\n [ 4.2218801e+04 -2.3217145e+04 -1.1934556e+04]\n [ 1.5939585e+04 -8.7714629e+03 -4.5034839e+03]\n [ 5.0432543e+04 -2.7728611e+04 -1.4261242e+04]\n [ 4.1663246e+04 -2.2907529e+04 -1.1782922e+04]\n [ 4.9521309e+04 -2.7256760e+04 -1.3985994e+04]\n [ 3.2886047e+04 -1.8058219e+04 -9.3224199e+03]\n [ 1.8757549e+04 -1.0307855e+04 -5.3123965e+03]\n [ 3.0463846e+04 -1.6746809e+04 -8.6194277e+03]\n [ 3.2215848e+04 -1.7653064e+04 -9.1497637e+03]\n [ 4.7383863e+04 -2.5958021e+04 -1.3462113e+04]\n [ 1.5980287e+04 -8.7742803e+03 -4.5273154e+03]\n [ 4.2538258e+04 -2.3484242e+04 -1.1972833e+04]\n [ 1.8427758e+04 -1.0145939e+04 -5.2031772e+03]\n [ 4.8471504e+04 -2.6756646e+04 -1.3644315e+04]\n [ 2.6335049e+04 -1.4462176e+04 -7.4588184e+03]\n [ 2.5233510e+04 -1.3807095e+04 -7.1833237e+03]\n [ 3.6336145e+04 -2.0048312e+04 -1.0234620e+04]\n [ 4.0017727e+04 -2.2064119e+04 -1.1280713e+04]\n [ 2.5617283e+04 -1.4059358e+04 -7.2617466e+03]\n [ 4.3477602e+04 -2.3502377e+04 -1.2575544e+04]\n [ 3.6828008e+04 -2.0175215e+04 -1.0468023e+04]\n [ 4.5305195e+04 -2.4912807e+04 -1.2808056e+04]\n [ 4.1662844e+04 -2.2939816e+04 -1.1759986e+04]\n [ 1.7674035e+04 -9.7289209e+03 -4.9941899e+03]\n [ 2.6118049e+04 -1.4364149e+04 -7.3834937e+03]\n [ 4.5414293e+04 -2.4927629e+04 -1.2870549e+04]\n [ 2.8271465e+04 -1.5565624e+04 -7.9807959e+03]\n [ 4.0749156e+04 -2.2297908e+04 -1.1597765e+04]\n [ 5.0283270e+04 -2.7624215e+04 -1.4237467e+04]\n [ 2.5040586e+04 -1.3710882e+04 -7.1260269e+03]\n [ 1.5631657e+04 -8.5951357e+03 -4.4204194e+03]\n [ 1.9441695e+06 -4.2375130e+06  1.3500730e+06]\n [ 2.1945729e+04 -1.2058713e+04 -6.2138398e+03]\n [ 2.7221131e+04 -1.4952614e+04 -7.7090679e+03]\n [ 2.4600545e+04 -1.3495242e+04 -6.9777935e+03]\n [ 4.1635262e+04 -2.2885670e+04 -1.1779832e+04]\n [ 1.8387449e+04 -1.0028140e+04 -5.2584429e+03]\n [ 5.1170012e+04 -2.8114869e+04 -1.4481684e+04]\n [ 4.8132008e+04 -2.6440986e+04 -1.3632626e+04]\n [ 2.7256967e+04 -1.4987919e+04 -7.7078906e+03]\n [ 1.8747732e+04 -1.0308283e+04 -5.3014580e+03]\n [ 2.8921072e+04 -1.5895444e+04 -8.1848931e+03]\n [ 3.7569121e+04 -2.0597820e+04 -1.0662368e+04]\n [ 1.5837569e+04 -8.6772266e+03 -4.5005776e+03]\n [ 2.9799061e+04 -1.6395299e+04 -8.4202402e+03]\n [ 4.2282551e+04 -2.3273660e+04 -1.1944154e+04]\n [ 2.8144459e+04 -1.5500744e+04 -7.9423945e+03]\n [ 3.0869375e+04 -1.6990551e+04 -8.7249111e+03]\n [ 1.8256799e+04 -1.0058158e+04 -5.1507144e+03]\n [ 2.6368580e+04 -1.4384132e+04 -7.5399897e+03]\n [ 3.4797273e+04 -1.9177730e+04 -9.8155664e+03]\n [ 2.8776311e+04 -1.5800700e+04 -8.1501919e+03]\n [ 4.7000379e+04 -2.5832113e+04 -1.3296437e+04]\n [ 3.6306297e+04 -2.0018232e+04 -1.0234775e+04]\n [ 2.6981754e+04 -1.4765601e+04 -7.6792729e+03]\n [ 2.7871260e+04 -1.5342157e+04 -7.8702173e+03]\n [ 3.7572254e+04 -2.0627168e+04 -1.0646291e+04]\n [ 4.9583797e+04 -2.7256396e+04 -1.4027365e+04]\n [ 4.6562238e+04 -2.5596004e+04 -1.3175028e+04]\n [ 1.5898817e+04 -8.7405303e+03 -4.4974048e+03]\n [ 4.1075074e+04 -2.2602490e+04 -1.1609661e+04]\n [ 1.8260424e+04 -1.0023004e+04 -5.1774336e+03]\n [ 3.7552418e+04 -2.0588459e+04 -1.0664654e+04]]",
      "probs": "[[1. 0. 0.]\n [1. 0. 0.]\n [1. 0. 0.]\n [1. 0. 0.]\n [1. 0. 0.]\n [1. 0. 0.]\n [1. 0. 0.]\n [1. 0. 0.]\n [1. 0. 0.]\n [1. 0. 0.]\n [1. 0. 0.]\n [1. 0. 0.]\n [1. 0. 0.]\n [1. 0. 0.]\n [1. 0. 0.]\n [1. 0. 0.]\n [1. 0. 0.]\n [1. 0. 0.]\n [1. 0. 0.]\n [1. 0. 0.]\n [1. 0. 0.]\n [1. 0. 0.]\n [1. 0. 0.]\n [1. 0. 0.]\n [1. 0. 0.]\n [1. 0. 0.]\n [1. 0. 0.]\n [1. 0. 0.]\n [1. 0. 0.]\n [1. 0. 0.]\n [1. 0. 0.]\n [1. 0. 0.]\n [1. 0. 0.]\n [1. 0. 0.]\n [1. 0. 0.]\n [1. 0. 0.]\n [1. 0. 0.]\n [1. 0. 0.]\n [1. 0. 0.]\n [1. 0. 0.]\n [1. 0. 0.]\n [1. 0. 0.]\n [1. 0. 0.]\n [1. 0. 0.]\n [1. 0. 0.]\n [1. 0. 0.]\n [1. 0. 0.]\n [1. 0. 0.]\n [1. 0. 0.]\n [1. 0. 0.]\n [1. 0. 0.]\n [1. 0. 0.]\n [1. 0. 0.]\n [1. 0. 0.]\n [1. 0. 0.]\n [1. 0. 0.]\n [1. 0. 0.]\n [1. 0. 0.]\n [1. 0. 0.]\n [1. 0. 0.]\n [1. 0. 0.]\n [1. 0. 0.]\n [1. 0. 0.]\n [1. 0. 0.]\n [1. 0. 0.]\n [1. 0. 0.]\n [1. 0. 0.]\n [1. 0. 0.]\n [1. 0. 0.]\n [1. 0. 0.]\n [1. 0. 0.]\n [1. 0. 0.]\n [1. 0. 0.]\n [1. 0. 0.]\n [1. 0. 0.]\n [1. 0. 0.]\n [1. 0. 0.]\n [1. 0. 0.]\n [1. 0. 0.]\n [1. 0. 0.]\n [1. 0. 0.]\n [1. 0. 0.]\n [1. 0. 0.]\n [1. 0. 0.]\n [1. 0. 0.]\n [1. 0. 0.]\n [1. 0. 0.]\n [1. 0. 0.]\n [1. 0. 0.]\n [1. 0. 0.]\n [1. 0. 0.]\n [1. 0. 0.]\n [1. 0. 0.]\n [1. 0. 0.]\n [1. 0. 0.]\n [1. 0. 0.]\n [1. 0. 0.]\n [1. 0. 0.]\n [1. 0. 0.]\n [1. 0. 0.]]",
      "pct_over_90": 100.0,
      "pct_over_99": 100.0,
      "class_distribution": [
        100,
        0,
        0
      ]
    }
  },
  "ETH-USD": {
    "weight_stats": {
      "fc1.weight": {
        "shape": [
          256,
          72
        ],
        "mean": -0.0001414991420460865,
        "std": 0.0689426064491272,
        "min": -0.16262637078762054,
        "max": 0.1594017744064331,
        "has_nan": false,
        "has_inf": false
      },
      "fc1.bias": {
        "shape": [
          256
        ],
        "mean": 0.00543082132935524,
        "std": 0.0672815814614296,
        "min": -0.13215066492557526,
        "max": 0.1309855878353119,
        "has_nan": false,
        "has_inf": false
      },
      "fc2.weight": {
        "shape": [
          128,
          256
        ],
        "mean": 0.0012648158008232713,
        "std": 0.03708868846297264,
        "min": -0.09860063344240189,
        "max": 0.09419091790914536,
        "has_nan": false,
        "has_inf": false
      },
      "fc2.bias": {
        "shape": [
          128
        ],
        "mean": 0.010531301610171795,
        "std": 0.0377291776239872,
        "min": -0.07424528896808624,
        "max": 0.08017532527446747,
        "has_nan": false,
        "has_inf": false
      },
      "fc3.weight": {
        "shape": [
          64,
          128
        ],
        "mean": 0.0006297448417171836,
        "std": 0.051201365888118744,
        "min": -0.11808142066001892,
        "max": 0.13099218904972076,
        "has_nan": false,
        "has_inf": false
      },
      "fc3.bias": {
        "shape": [
          64
        ],
        "mean": -0.007833846844732761,
        "std": 0.0498201921582222,
        "min": -0.0971323624253273,
        "max": 0.09115177392959595,
        "has_nan": false,
        "has_inf": false
      },
      "fc4.weight": {
        "shape": [
          3,
          64
        ],
        "mean": -0.0050443788059055805,
        "std": 0.07343345135450363,
        "min": -0.1380474865436554,
        "max": 0.13464325666427612,
        "has_nan": false,
        "has_inf": false
      },
      "fc4.bias": {
        "shape": [
          3
        ],
        "mean": 0.06689563393592834,
        "std": 0.06605823338031769,
        "min": 0.016287989914417267,
        "max": 0.1416245549917221,
        "has_nan": false,
        "has_inf": false
      }
    },
    "prediction_stats": {
      "logits": "[[ 1091.161    -758.85535  -777.98926]\n [ 1214.1361   -856.503    -853.9825 ]\n [ 1444.7938  -1009.2334  -1025.3011 ]\n [ 1673.6964  -1173.2118  -1181.4948 ]\n [ 1832.5463  -1298.4109  -1279.0933 ]\n [ 1670.5248  -1176.073   -1173.9518 ]\n [ 1441.7213  -1017.0382  -1010.42816]\n [ 1271.8846   -896.977    -893.3242 ]\n [  762.5223   -544.2836   -526.7515 ]\n [ 1110.3712   -785.09564  -778.6569 ]\n [ 1516.2435  -1065.0717  -1069.527  ]\n [ 1176.1995   -823.44     -831.94775]\n [  874.3846   -620.6006   -609.4305 ]\n [ 2171.0845  -1527.1294  -1527.009  ]\n [ 1590.0632  -1113.9836  -1125.1943 ]\n [ 1267.6133   -903.059    -877.9515 ]\n [ 1225.1644   -862.9039   -862.1862 ]\n [ 1356.2421   -954.6355   -952.8742 ]\n [ 1247.6136   -887.98486  -866.8385 ]\n [ 1990.7179  -1396.2195  -1404.8345 ]\n [ 1379.3193   -965.3973   -975.1117 ]\n [ 1516.5121  -1070.7184  -1063.5737 ]\n [ 1900.9402  -1329.0205  -1347.2842 ]\n [ 1392.2433   -988.676    -968.35254]\n [ 1511.4657  -1061.5476  -1065.7969 ]\n [ 1107.2731   -770.4303   -789.42017]\n [  999.8215   -708.25006  -698.635  ]\n [ 2210.1768  -1550.1196  -1560.7712 ]\n [ 1896.0803  -1333.3428  -1335.0757 ]\n [ 1015.32416  -707.2535   -722.6063 ]\n [ 1588.1941  -1114.7823  -1121.2231 ]\n [ 1168.9869   -846.48334  -791.03955]\n [ 1112.0507   -782.1728   -784.42053]\n [ 2149.6821  -1516.432   -1508.2649 ]\n [  889.68207  -621.3446   -632.9736 ]\n [ 1014.0235   -713.07556  -715.096  ]\n [ 1485.8363  -1041.0007  -1050.083  ]\n [ 1216.9181   -855.24506  -857.62134]\n [ 1413.3855   -992.70856  -996.7059 ]\n [ 1354.3302   -953.806    -953.00024]\n [ 1705.7904  -1214.1077  -1182.7004 ]\n [  986.4161   -685.6492   -704.14136]\n [ 1624.725   -1148.5723  -1136.3259 ]\n [ 2290.3958  -1610.0284  -1610.8512 ]\n [ 1452.018   -1026.4851  -1018.6079 ]\n [ 1341.872    -956.8963   -925.98785]\n [ 1336.5701   -942.8189   -935.09467]\n [ 1892.2231  -1338.6926  -1324.0225 ]\n [ 1123.2644   -782.5706   -799.58765]\n [  968.73816  -685.05096  -678.6166 ]\n [ 1221.8884   -860.80365  -857.3038 ]\n [ 1597.5327  -1126.1674  -1121.1324 ]\n [ 1234.3033   -876.8609   -857.17975]\n [ 1782.5819  -1250.4294  -1257.9584 ]\n [ 1697.1249  -1193.6333  -1194.3428 ]\n [ 2146.291   -1509.0317  -1509.5531 ]\n [  864.8765   -605.58905  -612.8702 ]\n [ 1201.8641   -845.4183   -846.9606 ]\n [ 1506.6285  -1064.714   -1056.7786 ]\n [ 1620.0737  -1141.1042  -1136.833  ]\n [  968.10126  -689.30206  -672.235  ]\n [ 1105.966    -773.6943   -782.5902 ]\n [  973.8932   -685.83374  -685.7064 ]\n [ 1508.6426  -1057.8765  -1066.0681 ]\n [ 1991.812   -1414.7864  -1388.0524 ]\n [ 1457.0284  -1033.6003  -1016.1621 ]\n [ 1061.4532   -737.6805   -756.8512 ]\n [ 1487.7439  -1044.5361  -1050.2557 ]\n [ 1879.5374  -1317.6301  -1328.3054 ]\n [ 1146.0713   -805.6005   -809.19714]\n [ 1585.6394  -1116.9712  -1114.8948 ]\n [ 1735.8983  -1225.5667  -1217.7671 ]\n [ 1257.734    -891.057    -879.4531 ]\n [ 1231.4703   -862.31586  -871.43616]\n [ 1261.6162   -893.6158   -882.7182 ]\n [ 1692.8011  -1198.4044  -1182.6091 ]\n [ 1164.4908   -824.0623   -818.92175]\n [  986.53986  -698.0538   -690.9252 ]\n [  999.3364   -707.20074  -698.0196 ]\n [ 2148.502   -1504.4814  -1520.4116 ]\n [ 1107.3579   -770.4008   -789.26276]\n [ 1489.2623  -1054.156   -1042.2201 ]\n [ 1010.45013  -705.89923  -716.9369 ]\n [ 1660.2982  -1161.4304  -1175.5217 ]\n [ 1177.4288   -831.8912   -827.08374]\n [ 1199.8671   -846.9338   -842.8856 ]\n [ 1181.577    -823.29974  -840.80994]\n [ 1707.8444  -1201.8829  -1202.8535 ]\n [ 1265.3417   -895.6275   -884.1781 ]\n [  766.9816   -540.2043   -540.31433]\n [ 1661.8964  -1175.9595  -1158.2876 ]\n [ 1129.0575   -831.6504   -744.91766]\n [  888.09875  -622.2493   -628.65576]\n [ 1613.256   -1141.9832  -1128.4583 ]\n [ 1704.3     -1202.826   -1196.2444 ]\n [ 1427.9569  -1008.4798  -1002.20874]\n [ 1746.1167  -1234.5575  -1221.846  ]\n [ 1286.2513   -897.4715   -913.5785 ]\n [ 1260.1636   -886.7469   -887.4413 ]\n [ 1263.725    -915.5014   -852.6968 ]]",
      "probs": "[[1. 0. 0.]\n [1. 0. 0.]\n [1. 0. 0.]\n [1. 0. 0.]\n [1. 0. 0.]\n [1. 0. 0.]\n [1. 0. 0.]\n [1. 0. 0.]\n [1. 0. 0.]\n [1. 0. 0.]\n [1. 0. 0.]\n [1. 0. 0.]\n [1. 0. 0.]\n [1. 0. 0.]\n [1. 0. 0.]\n [1. 0. 0.]\n [1. 0. 0.]\n [1. 0. 0.]\n [1. 0. 0.]\n [1. 0. 0.]\n [1. 0. 0.]\n [1. 0. 0.]\n [1. 0. 0.]\n [1. 0. 0.]\n [1. 0. 0.]\n [1. 0. 0.]\n [1. 0. 0.]\n [1. 0. 0.]\n [1. 0. 0.]\n [1. 0. 0.]\n [1. 0. 0.]\n [1. 0. 0.]\n [1. 0. 0.]\n [1. 0. 0.]\n [1. 0. 0.]\n [1. 0. 0.]\n [1. 0. 0.]\n [1. 0. 0.]\n [1. 0. 0.]\n [1. 0. 0.]\n [1. 0. 0.]\n [1. 0. 0.]\n [1. 0. 0.]\n [1. 0. 0.]\n [1. 0. 0.]\n [1. 0. 0.]\n [1. 0. 0.]\n [1. 0. 0.]\n [1. 0. 0.]\n [1. 0. 0.]\n [1. 0. 0.]\n [1. 0. 0.]\n [1. 0. 0.]\n [1. 0. 0.]\n [1. 0. 0.]\n [1. 0. 0.]\n [1. 0. 0.]\n [1. 0. 0.]\n [1. 0. 0.]\n [1. 0. 0.]\n [1. 0. 0.]\n [1. 0. 0.]\n [1. 0. 0.]\n [1. 0. 0.]\n [1. 0. 0.]\n [1. 0. 0.]\n [1. 0. 0.]\n [1. 0. 0.]\n [1. 0. 0.]\n [1. 0. 0.]\n [1. 0. 0.]\n [1. 0. 0.]\n [1. 0. 0.]\n [1. 0. 0.]\n [1. 0. 0.]\n [1. 0. 0.]\n [1. 0. 0.]\n [1. 0. 0.]\n [1. 0. 0.]\n [1. 0. 0.]\n [1. 0. 0.]\n [1. 0. 0.]\n [1. 0. 0.]\n [1. 0. 0.]\n [1. 0. 0.]\n [1. 0. 0.]\n [1. 0. 0.]\n [1. 0. 0.]\n [1. 0. 0.]\n [1. 0. 0.]\n [1. 0. 0.]\n [1. 0. 0.]\n [1. 0. 0.]\n [1. 0. 0.]\n [1. 0. 0.]\n [1. 0. 0.]\n [1. 0. 0.]\n [1. 0. 0.]\n [1. 0. 0.]\n [1. 0. 0.]]",
      "pct_over_90": 100.0,
      "pct_over_99": 100.0,
      "class_distribution": [
        100,
        0,
        0
      ]
    }
  },
  "SOL-USD": {
    "weight_stats": {
      "fc1.weight": {
        "shape": [
          256,
          72
        ],
        "mean": 0.0008302894420921803,
        "std": 0.06877598911523819,
        "min": -0.16147710382938385,
        "max": 0.15284879505634308,
        "has_nan": false,
        "has_inf": false
      },
      "fc1.bias": {
        "shape": [
          256
        ],
        "mean": -0.0027622284833341837,
        "std": 0.06797408312559128,
        "min": -0.1373004913330078,
        "max": 0.1277771294116974,
        "has_nan": false,
        "has_inf": false
      },
      "fc2.weight": {
        "shape": [
          128,
          256
        ],
        "mean": 0.001488913781940937,
        "std": 0.03698638454079628,
        "min": -0.0941496342420578,
        "max": 0.1017204076051712,
        "has_nan": false,
        "has_inf": false
      },
      "fc2.bias": {
        "shape": [
          128
        ],
        "mean": 0.0070478287525475025,
        "std": 0.036561962217092514,
        "min": -0.08369360864162445,
        "max": 0.07351972907781601,
        "has_nan": false,
        "has_inf": false
      },
      "fc3.weight": {
        "shape": [
          64,
          128
        ],
        "mean": 0.0008057938539423048,
        "std": 0.05098433792591095,
        "min": -0.11233873665332794,
        "max": 0.11066535860300064,
        "has_nan": false,
        "has_inf": false
      },
      "fc3.bias": {
        "shape": [
          64
        ],
        "mean": 0.009262919425964355,
        "std": 0.0517260916531086,
        "min": -0.07525624334812164,
        "max": 0.09477802366018295,
        "has_nan": false,
        "has_inf": false
      },
      "fc4.weight": {
        "shape": [
          3,
          64
        ],
        "mean": 0.004002598579972982,
        "std": 0.07384226471185684,
        "min": -0.1400664895772934,
        "max": 0.12630081176757812,
        "has_nan": false,
        "has_inf": false
      },
      "fc4.bias": {
        "shape": [
          3
        ],
        "mean": 0.03610248491168022,
        "std": 0.09486997872591019,
        "min": -0.06419694423675537,
        "max": 0.12440101057291031,
        "has_nan": false,
        "has_inf": false
      }
    },
    "prediction_stats": {
      "logits": "[[ 103.36063    -23.164366   -76.53896  ]\n [  87.27528    -27.567982   -59.47611  ]\n [  75.136536   -25.209541   -49.84005  ]\n [ 117.55064    -76.79816    -34.869823 ]\n [ 173.36407   -147.00826    -21.56699  ]\n [ 127.42028   -169.12404     57.638878 ]\n [  63.846256   -86.098946    31.47918  ]\n [  99.13368    -37.909523   -55.654034 ]\n [ 104.522194   -92.399574     6.3826337]\n [  60.82589    -42.461643    -7.6905403]\n [  93.771645   -25.062887   -63.878757 ]\n [  69.65761    -29.383965   -39.91906  ]\n [ 125.818535   -27.09585    -99.85659  ]\n [  32.32012    -42.721584    15.037769 ]\n [ 133.19487   -109.60356      9.337063 ]\n [  96.573326   -64.470245   -17.3887   ]\n [  59.997887   -66.651344    17.189774 ]\n [  87.409615   -98.822105    14.009694 ]\n [  51.73033    -31.998165   -14.023138 ]\n [ 164.81895   -233.3415      92.830086 ]\n [  85.11186    -77.57982    -11.007922 ]\n [ 110.55091    -59.258015   -58.289265 ]\n [  91.48799    -47.070034   -42.84746  ]\n [ 134.74449    -37.1903     -94.91618  ]\n [  82.92279    -16.586554   -64.332886 ]\n [  81.87853    -16.7859     -61.884205 ]\n [  68.292244   -26.586447   -42.44734  ]\n [  43.970345   -66.71402     26.62702  ]\n [  49.761353   -30.223343   -20.304407 ]\n [ 109.15113    -20.832611   -88.08408  ]\n [ 126.74337    -28.017668   -95.10807  ]\n [  75.73252    -44.848396   -27.735027 ]\n [ 172.08351   -183.87791     16.294489 ]\n [  83.15388    -19.12706    -60.685215 ]\n [  53.66823    -14.623647   -38.058636 ]\n [  62.719925   -31.020035   -29.597782 ]\n [  85.419365   -23.47866    -61.336605 ]\n [  85.955376  -115.76045     39.11333  ]\n [  77.27151    -26.647673   -48.612564 ]\n [  77.66135    -16.866531   -57.314266 ]\n [ 121.36117    -24.357212   -97.08405  ]\n [ 148.83948    -31.985857  -112.46258  ]\n [ 114.71748    -33.873165   -76.39705  ]\n [  69.03832   -118.97675     73.30488  ]\n [  71.45289    -15.850333   -54.2289   ]\n [  79.7905     -23.038658   -53.96288  ]\n [  80.65268   -126.95494     69.28144  ]\n [  75.55567    -53.94163    -15.916939 ]\n [ 100.518684   -24.717304   -74.4382   ]\n [  73.0493     -35.016197   -34.828182 ]\n [ 173.84857   -134.53719    -42.852005 ]\n [ 187.50746   -139.38045    -24.374454 ]\n [  67.794426   -25.505531   -37.24604  ]\n [  97.54511    -74.03102    -16.259378 ]\n [ 153.41545   -226.00362     93.0907   ]\n [  54.595562   -57.884666     2.3242097]\n [  53.47481   -101.67282     62.20375  ]\n [ 126.70318    -29.509552   -96.3599   ]\n [ 142.43205    -58.90827    -72.005165 ]\n [ 113.90005    -31.458748   -79.10661  ]\n [ 105.015854   -46.06759    -59.608017 ]\n [  53.95369    -37.956867    -7.276485 ]\n [ 173.62697   -198.66557     29.42813  ]\n [  88.417984   -24.178186   -60.990726 ]\n [  91.60816    -20.440636   -69.61046  ]\n [  92.33932    -31.86617    -59.67793  ]\n [  65.505936   -40.700695   -22.9342   ]\n [  84.25973    -78.92828      2.3897257]\n [ 210.4453    -239.89331     49.33665  ]\n [  75.00487    -20.715796   -53.55705  ]\n [  85.074104   -67.416626   -20.084417 ]\n [ 229.13602   -282.05673     43.734543 ]\n [ 100.74801    -52.217655   -39.271576 ]\n [  92.91581    -31.602095   -61.034447 ]\n [ 126.94904    -28.06062    -95.45425  ]\n [  95.054      -21.498474   -72.077034 ]\n [ 238.02007   -278.1698      77.44458  ]\n [ 143.89325   -183.88051     53.108795 ]\n [ 124.506226   -30.139984   -91.27157  ]\n [  92.9192     -25.42998    -67.448845 ]\n [  88.6843     -27.990726   -59.901653 ]\n [  58.662468   -10.352252   -47.050404 ]\n [  91.14469    -42.51903    -43.8146   ]\n [ 116.82928    -38.766      -74.79241  ]\n [ 112.62452    -90.791214   -16.432076 ]\n [  81.628944   -27.627144   -50.559685 ]\n [  72.99195   -114.3695      72.06672  ]\n [  82.034584   -82.048996    16.321127 ]\n [  81.44009    -19.201496   -59.941067 ]\n [  76.193756   -22.751184   -54.170284 ]\n [ 132.41228    -63.64525    -71.51266  ]\n [  90.593834   -22.011318   -67.159096 ]\n [  49.484894   -33.947697   -17.343824 ]\n [  67.961395   -14.601765   -51.55769  ]\n [  96.977585   -93.74958     11.807166 ]\n [ 104.739456   -52.162437   -47.682705 ]\n [  93.87708    -20.344557   -72.49151  ]\n [  84.85638    -21.228683   -63.317547 ]\n [  72.54273    -46.92132    -20.873722 ]\n [  27.687035   -44.074963    20.95043  ]]",
      "probs": "[[1.0000000e+00 0.0000000e+00 0.0000000e+00]\n [1.0000000e+00 0.0000000e+00 0.0000000e+00]\n [1.0000000e+00 2.6624671e-44 0.0000000e+00]\n [1.0000000e+00 0.0000000e+00 0.0000000e+00]\n [1.0000000e+00 0.0000000e+00 0.0000000e+00]\n [1.0000000e+00 0.0000000e+00 4.9467722e-31]\n [1.0000000e+00 0.0000000e+00 8.7731819e-15]\n [1.0000000e+00 0.0000000e+00 0.0000000e+00]\n [1.0000000e+00 0.0000000e+00 2.3962204e-43]\n [1.0000000e+00 1.4012985e-45 1.7526327e-30]\n [1.0000000e+00 0.0000000e+00 0.0000000e+00]\n [1.0000000e+00 9.6689594e-44 0.0000000e+00]\n [1.0000000e+00 0.0000000e+00 0.0000000e+00]\n [1.0000000e+00 2.5692288e-33 3.1215457e-08]\n [1.0000000e+00 0.0000000e+00 0.0000000e+00]\n [1.0000000e+00 0.0000000e+00 0.0000000e+00]\n [1.0000000e+00 0.0000000e+00 2.5625520e-19]\n [1.0000000e+00 0.0000000e+00 1.3268469e-32]\n [1.0000000e+00 4.3368492e-37 2.7773475e-29]\n [1.0000000e+00 0.0000000e+00 5.4404088e-32]\n [1.0000000e+00 0.0000000e+00 1.8020698e-42]\n [1.0000000e+00 0.0000000e+00 0.0000000e+00]\n [1.0000000e+00 0.0000000e+00 0.0000000e+00]\n [1.0000000e+00 0.0000000e+00 0.0000000e+00]\n [1.0000000e+00 6.0255834e-44 0.0000000e+00]\n [1.0000000e+00 1.4153114e-43 0.0000000e+00]\n [1.0000000e+00 6.2329756e-42 0.0000000e+00]\n [1.0000000e+00 0.0000000e+00 2.9369044e-08]\n [1.0000000e+00 1.8326864e-35 3.7224429e-31]\n [1.0000000e+00 0.0000000e+00 0.0000000e+00]\n [1.0000000e+00 0.0000000e+00 0.0000000e+00]\n [1.0000000e+00 0.0000000e+00 1.4012985e-45]\n [1.0000000e+00 0.0000000e+00 0.0000000e+00]\n [1.0000000e+00 4.2038954e-45 0.0000000e+00]\n [1.0000000e+00 2.1938874e-30 1.4572243e-40]\n [1.0000000e+00 1.9465437e-41 8.0710588e-41]\n [1.0000000e+00 0.0000000e+00 0.0000000e+00]\n [1.0000000e+00 0.0000000e+00 4.5368918e-21]\n [1.0000000e+00 1.4012985e-45 0.0000000e+00]\n [1.0000000e+00 8.8520024e-42 0.0000000e+00]\n [1.0000000e+00 0.0000000e+00 0.0000000e+00]\n [1.0000000e+00 0.0000000e+00 0.0000000e+00]\n [1.0000000e+00 0.0000000e+00 0.0000000e+00]\n [1.3835905e-02 0.0000000e+00 9.8616415e-01]\n [1.0000000e+00 1.2153242e-38 0.0000000e+00]\n [1.0000000e+00 2.8025969e-45 0.0000000e+00]\n [9.9998844e-01 0.0000000e+00 1.1522024e-05]\n [1.0000000e+00 0.0000000e+00 1.8790992e-40]\n [1.0000000e+00 0.0000000e+00 0.0000000e+00]\n [1.0000000e+00 0.0000000e+00 0.0000000e+00]\n [1.0000000e+00 0.0000000e+00 0.0000000e+00]\n [1.0000000e+00 0.0000000e+00 0.0000000e+00]\n [1.0000000e+00 3.0223205e-41 0.0000000e+00]\n [1.0000000e+00 0.0000000e+00 0.0000000e+00]\n [1.0000000e+00 0.0000000e+00 6.3283828e-27]\n [1.0000000e+00 0.0000000e+00 1.9899436e-23]\n [1.6180787e-04 0.0000000e+00 9.9983811e-01]\n [1.0000000e+00 0.0000000e+00 0.0000000e+00]\n [1.0000000e+00 0.0000000e+00 0.0000000e+00]\n [1.0000000e+00 0.0000000e+00 0.0000000e+00]\n [1.0000000e+00 0.0000000e+00 0.0000000e+00]\n [1.0000000e+00 1.2126977e-40 2.5590151e-27]\n [1.0000000e+00 0.0000000e+00 0.0000000e+00]\n [1.0000000e+00 0.0000000e+00 0.0000000e+00]\n [1.0000000e+00 0.0000000e+00 0.0000000e+00]\n [1.0000000e+00 0.0000000e+00 0.0000000e+00]\n [1.0000000e+00 0.0000000e+00 3.8988383e-39]\n [1.0000000e+00 0.0000000e+00 2.7816954e-36]\n [1.0000000e+00 0.0000000e+00 0.0000000e+00]\n [1.0000000e+00 2.6862892e-42 0.0000000e+00]\n [1.0000000e+00 0.0000000e+00 0.0000000e+00]\n [1.0000000e+00 0.0000000e+00 0.0000000e+00]\n [1.0000000e+00 0.0000000e+00 0.0000000e+00]\n [1.0000000e+00 0.0000000e+00 0.0000000e+00]\n [1.0000000e+00 0.0000000e+00 0.0000000e+00]\n [1.0000000e+00 0.0000000e+00 0.0000000e+00]\n [1.0000000e+00 0.0000000e+00 0.0000000e+00]\n [1.0000000e+00 0.0000000e+00 3.7394911e-40]\n [1.0000000e+00 0.0000000e+00 0.0000000e+00]\n [1.0000000e+00 0.0000000e+00 0.0000000e+00]\n [1.0000000e+00 0.0000000e+00 0.0000000e+00]\n [1.0000000e+00 1.0648518e-30 0.0000000e+00]\n [1.0000000e+00 0.0000000e+00 0.0000000e+00]\n [1.0000000e+00 0.0000000e+00 0.0000000e+00]\n [1.0000000e+00 0.0000000e+00 0.0000000e+00]\n [1.0000000e+00 0.0000000e+00 0.0000000e+00]\n [7.1610695e-01 0.0000000e+00 2.8389305e-01]\n [1.0000000e+00 0.0000000e+00 2.8907399e-29]\n [1.0000000e+00 1.9618179e-44 0.0000000e+00]\n [1.0000000e+00 1.0649868e-43 0.0000000e+00]\n [1.0000000e+00 0.0000000e+00 0.0000000e+00]\n [1.0000000e+00 0.0000000e+00 0.0000000e+00]\n [1.0000000e+00 5.8302608e-37 9.4766677e-30]\n [1.0000000e+00 1.3908391e-36 0.0000000e+00]\n [1.0000000e+00 0.0000000e+00 1.0255516e-37]\n [1.0000000e+00 0.0000000e+00 0.0000000e+00]\n [1.0000000e+00 0.0000000e+00 0.0000000e+00]\n [1.0000000e+00 0.0000000e+00 0.0000000e+00]\n [1.0000000e+00 0.0000000e+00 2.6899325e-41]\n [9.9881470e-01 6.8178455e-32 1.1852629e-03]]",
      "pct_over_90": 99.0,
      "pct_over_99": 98.0,
      "class_distribution": [
        98,
        0,
        2
      ]
    }
  }
}